{
  "CostFunction": "QuadraticCost",
  "Layers": [
    {
      "Activation": "Sigmoid",
      "Biases": [
        -0.92970847658240241,
        -0.63970622492417129,
        0.010720094582852269,
        -0.79671313655193754,
        -1.1394900820511249,
        -0.80347174065184856,
        -0.32095535478776471,
        0.8559938327626827,
        0.37369238669377397,
        0.36721177692217433,
        -0.81035690480017253,
        0.64549218606041214,
        0.66736980427588166,
        0.36466513551043855,
        1.45451270424888,
        -0.88181006015228725,
        1.4659453572834311,
        0.21739886049077586,
        -0.14905753972489222,
        -0.48092508765610809
      ],
      "Weights": [
        [
          -0.33096203704485744,
          -1.3212879284597714,
          0.17666405982446795,
          -2.0181355117089708,
          0.12893908009380711,
          0.358163192147835,
          1.1917195920577337,
          1.3013272446915127,
          -0.98888167837404728,
          0.36281744163518509,
          0.52459279325650332,
          0.49142203502449161,
          0.620973871895311,
          -0.12722606865324951,
          -0.60610225967223241,
          0.14553696831875931,
          2.4616178043878763,
          2.9814866271877913,
          1.9463212143160862,
          -1.4775672538345681,
          -0.66274677725907871,
          -0.68362387728156293,
          -0.17028137695631776,
          -0.18377812560494303,
          0.23664079437526328,
          -1.0389680697201025,
          -0.15381062296289588,
          -0.77636065892879147,
          1.278930475208881,
          -1.5433812914679925,
          -1.7339829796652495,
          0.00089386987940914657,
          -0.90457506228294426,
          -0.12686988572356062,
          1.4508907595305429
        ],
        [
          -1.138609275091762,
          0.21578412605456571,
          0.22120236766757795,
          0.26938744901064426,
          0.81888498382831176,
          -0.13395990404478955,
          -0.7805999991405943,
          1.4059292084563524,
          -0.37314274038308176,
          -0.86312335601385615,
          -0.69970904696713387,
          1.4672674566587833,
          0.74211726523768484,
          1.5989140676214224,
          0.37713432803836439,
          1.0118126253890187,
          0.15035112460249286,
          -0.536924253915656,
          -0.55739839253662682,
          -1.5044179105069613,
          -0.55361637136636177,
          -0.33540889528593865,
          0.092306456511027854,
          -1.1640389400389617,
          0.095790102249490638,
          1.45876036720224,
          0.75807529893149361,
          0.86674941633980618,
          -0.21058529619768104,
          0.10226517903839029,
          0.46265256383110392,
          -0.48313586671320119,
          0.23717052665705438,
          -0.443809554769917,
          0.51444596166025425
        ],
        [
          0.808539554652317,
          0.79021303863800907,
          0.58646655125369662,
          -0.66450718975227174,
          0.81181714046463171,
          0.96417942772972187,
          0.47925237088231754,
          -1.3622820696782416,
          -0.98719279577347574,
          0.48664424842454745,
          0.46073888171081528,
          -0.033776931536326014,
          -0.56349033185886332,
          -0.31178863838895549,
          0.43394875970121888,
          1.7212162472102996,
          0.40944881309942316,
          0.47604274900622778,
          0.57626487915725422,
          -0.33511683668289755,
          1.1505797134971545,
          0.50006351828534412,
          -2.099586930901213,
          0.56356802048973376,
          0.037082746485265591,
          -0.99977870036562055,
          -1.5179237311723437,
          0.098471780887121538,
          -0.38558633336613535,
          0.49260001851998153,
          0.85426124393541492,
          0.13333862080822992,
          -0.696403857721089,
          -0.001288820707901255,
          -0.558185316846697
        ],
        [
          0.3534802465216525,
          -0.65879439126128236,
          -0.2979296752202662,
          1.8141002884759072,
          0.91242575053138231,
          -0.64240762652127337,
          -0.607079941443639,
          -0.9885878952701207,
          0.62415647388940365,
          -0.41921205222151786,
          -1.4353543587336488,
          0.31820688529863983,
          -0.70347316060009335,
          2.0595060654912247,
          1.1437152930936592,
          -1.1779132700591228,
          -0.93640212109779486,
          -0.53631053931352912,
          0.19342097205793829,
          0.35004510270002809,
          2.0229811032346152,
          -1.2682800620472823,
          1.3270822555481214,
          0.88146964552977236,
          -1.0673257354781256,
          0.42417095012955486,
          0.21627118534097436,
          0.1658931998164927,
          0.26873346741270443,
          0.4877035843381709,
          -0.29782507135970077,
          0.0045164183586108306,
          0.6803875970721136,
          -0.92249036090649672,
          -0.44308566952578626
        ],
        [
          -0.91711143116140759,
          -0.89656156523265429,
          -0.49258676034399751,
          -0.14633979251051324,
          -0.31592667728526497,
          -0.3791643643903751,
          -1.1002992001098479,
          -0.26219043030491268,
          0.48260124350164552,
          -0.58369503809553269,
          -1.509178901671419,
          -0.28431399049555961,
          0.011559690946383892,
          0.01841923168232882,
          0.86550913765185189,
          1.0772477855930769,
          0.24859821334199445,
          1.2090280674483234,
          -0.030155475271414437,
          1.357616463914407,
          1.6761289023499855,
          0.002419442056022081,
          0.33329294972138057,
          0.30417043273231958,
          -0.50938730661320941,
          -1.7243086448809644,
          0.001283780445552345,
          2.8069256955915631,
          -0.60337951740445772,
          -1.30624052036018,
          0.77338996780298319,
          0.839104308075956,
          0.72434303651726517,
          1.6923936645755238,
          0.34867924157130659
        ],
        [
          0.21012691711040002,
          -0.059935662418104607,
          1.7428192484620126,
          0.92710390929851716,
          0.05129562773231288,
          0.47792364405093635,
          0.76172980201377372,
          0.41672881976591009,
          -0.16949440749257613,
          -0.48052675297767894,
          0.5218152525936206,
          -0.019255477420305603,
          1.0484791287629747,
          -0.30887514109891406,
          0.991087900957232,
          0.67868231725457917,
          -1.0223824261069707,
          -0.48593156134912552,
          -1.8193254311429259,
          -0.93312183256162184,
          -1.1054654152872612,
          -0.66898326860654334,
          0.18497712151903448,
          -0.41596860758311527,
          -0.90794352780048826,
          0.51130450545132144,
          0.019635606994826384,
          1.8546179763379553,
          -1.028012719665016,
          -0.90512815746702813,
          -0.23609876674822458,
          0.64132837207544624,
          0.4525803520949942,
          -0.58268224175643413,
          0.73168679201754039
        ],
        [
          0.075245194728649878,
          -0.75219197305548635,
          0.0427825771205097,
          -0.60104059761595763,
          1.2984916173822874,
          1.8658043735428274,
          1.7890068735630538,
          -0.14859061179582833,
          0.010553109584436938,
          0.27635672269711004,
          1.5344086854880739,
          0.64919102295515863,
          -1.1278173868490984,
          -0.38132243244560443,
          -0.39442813199859184,
          0.34582490332494159,
          -0.6842457870553621,
          -1.5341435371021783,
          0.49898842345953121,
          1.7773496502493213,
          -0.70313999637805225,
          -0.11087033412310025,
          1.171426062743121,
          -0.2757224670681665,
          0.85715125482953325,
          0.34430210815023982,
          0.19280770425047805,
          -1.9398117206015242,
          -0.20032762693006245,
          -0.64038272646056549,
          -0.020925302703585308,
          -0.93234015973859152,
          0.145961408368634,
          -0.22324235800096015,
          1.5542940511366372
        ],
        [
          1.3242616789491559,
          -0.5537249297410527,
          0.38703007438770487,
          0.1751321850855036,
          -0.7303420581717005,
          0.084993374851130649,
          -1.1584105727261862,
          0.43689115555161562,
          -1.1728951420873366,
          1.390315657631368,
          -0.961004404447723,
          -1.1522038605882936,
          0.019669279938524305,
          -2.4500105793375555,
          -0.46298959909183013,
          0.18544181583405484,
          0.0029669668575082152,
          -0.2772668720660495,
          0.29277871255889087,
          0.36809898900052618,
          -0.21642661640768823,
          -1.3054924393006668,
          0.964128817518826,
          -0.878472610038316,
          -0.35633353917234378,
          -0.40764376347692338,
          -0.7734169762480767,
          0.77535978735014255,
          0.7660390379065487,
          -0.79819087577093084,
          -1.6832178113748015,
          1.0274093145059406,
          1.3788057297984266,
          1.8757501481504453,
          0.55882351317305146
        ],
        [
          0.04314093298234567,
          -0.22809745359172393,
          0.14271066461902321,
          0.1509473842216075,
          0.21264192976079366,
          -1.1554498131491451,
          -0.68934454435876613,
          0.31583504778282023,
          0.036224738159193887,
          0.61109218649583308,
          -0.37786480358066121,
          0.25587860221468728,
          0.87132167284506934,
          -0.867386584623689,
          0.41071661141603688,
          -0.15559791388733596,
          -0.7070645635207754,
          -0.80728752034603468,
          -0.60888711670943185,
          -1.75015692033772,
          -0.793784053642925,
          -0.16508264107232984,
          -0.37439981607266487,
          0.76210035353589956,
          0.27955140827611635,
          0.17431500350550713,
          0.790793983528975,
          1.171302461614147,
          -0.12249630388450004,
          0.11118572630442264,
          -0.10012547537423055,
          -0.83802944491609888,
          0.94429696826714926,
          0.19023688152896573,
          0.052730393254105307
        ],
        [
          -0.15587153783841448,
          0.48911672328391115,
          0.38267940762043334,
          -0.537852496795119,
          -0.628738496325806,
          -0.85300761670149516,
          -1.1456807616920985,
          0.33513325463326621,
          0.068716275366299748,
          1.5124604877665084,
          -0.43723562782112324,
          -0.0082121009355589514,
          0.68573744338225984,
          -0.54733038443794735,
          -1.5309330231813505,
          -0.61001714455446232,
          -0.29553719944550838,
          0.72436004285655253,
          0.36958428944437116,
          0.9066385011167728,
          2.2568789328266337,
          -0.071861894374512791,
          1.5710264853806486,
          -0.691531314334002,
          -1.1494483086768708,
          0.84490898136290693,
          -0.024869067069060627,
          0.14694003286008284,
          -0.078677187935837514,
          -0.62616034951128752,
          -1.0912666172305991,
          -0.064576343384917329,
          1.5659377808435175,
          0.21307594000908572,
          -0.12730126241723394
        ],
        [
          -0.0518533522316429,
          1.7444361149204011,
          1.1667423336862681,
          -0.45943253026967423,
          -1.3937865963683029,
          -1.3989453893425452,
          -0.1768317846729171,
          -0.017204025912253364,
          -0.41348104776128208,
          0.20209540907594498,
          -0.31735201594682544,
          0.39011364120258674,
          -0.38015435165876882,
          0.718676870049684,
          0.05047914680489992,
          0.01775997894977294,
          -0.19136547895637035,
          2.3249118738009891,
          1.0630372936481112,
          0.50099813063498411,
          -0.93078791758443546,
          -1.5374739609765451,
          -0.52177038769892459,
          -1.056460388621457,
          0.41826575740095628,
          -0.2944080541635451,
          0.31778697797024863,
          0.89955086548760244,
          0.5574726277231169,
          -0.67216837414586172,
          0.66267026807998641,
          -0.16635733527364413,
          -1.2046360895596973,
          -0.13247408136104308,
          0.14269300204913032
        ],
        [
          0.035893366270601405,
          -0.6189001251939269,
          -0.0054672888179462453,
          0.24982020442635972,
          1.1593593014234724,
          0.52807874485676765,
          -1.1817911968705692,
          0.693623530810236,
          0.87985588239477075,
          0.7538170884235128,
          0.80827298813604875,
          0.66682797660910853,
          0.46139097827521625,
          -0.14407313681607589,
          -1.0839904799675584,
          -1.5520057446951019,
          -0.70758854217370215,
          -0.69737668375720918,
          -0.8633498060391287,
          -0.598503718370396,
          1.1199215053216403,
          1.1034103583956907,
          -0.52026700098542344,
          -0.73266927783449842,
          1.3791852664248512,
          -0.489579619934326,
          -0.66420584053029219,
          -0.227640127662255,
          -0.26144043415417723,
          -0.34357949325949583,
          0.21979345559248628,
          1.045533675045593,
          0.775100295182909,
          -0.24453954581096668,
          -0.31221086941790366
        ],
        [
          0.19639109946994948,
          0.20227177541559768,
          -0.6215153352826106,
          -0.49328084313218562,
          -0.4372840682598228,
          -0.10808581090888793,
          0.41179337877859862,
          0.16411339139728889,
          0.807881081951897,
          -0.6665594121186631,
          -0.41996750452425269,
          -1.1259883226492042,
          -1.6581189182562068,
          -1.2617740423672348,
          -0.71499223118070565,
          -0.31105822298644131,
          -0.051469724613861935,
          -1.1357459334809679,
          0.32763000230188777,
          0.75746120145049822,
          -1.283969520685285,
          1.2620902368090132,
          -0.88434118349180912,
          0.32987757273051427,
          0.51991202660975355,
          -0.89817114767057638,
          -0.87173989797013629,
          0.21917990677428154,
          -0.16486880541086862,
          1.6505285313829894,
          1.575442292862512,
          -0.58979682646514742,
          0.72524366257286654,
          1.0910023407613656,
          1.7512977779132581
        ],
        [
          -0.50033716491470137,
          1.1644787959169478,
          -0.23347607693631336,
          0.29893963563820608,
          -0.76920659922474255,
          -1.3126208879931287,
          -0.45630758378798131,
          1.1231981119854926,
          1.8206136027818474,
          0.047748991351424824,
          -0.15024629981927382,
          0.95056873084221938,
          0.80181758855395091,
          -0.15866990098992936,
          -1.6855864507176652,
          -2.8313323802369736,
          -1.4414679952422509,
          0.10721742200748276,
          -0.22024335268989192,
          -1.1421027646891295,
          -0.1966030873646879,
          0.16331338352745134,
          1.183897982160051,
          -0.82357122275390837,
          0.72778613621397059,
          1.1146523374057495,
          1.010759902779649,
          -1.0399927318712885,
          -0.43918283927656304,
          0.14857006810639514,
          -0.13641563933926623,
          0.34991081125696777,
          0.24303366964351109,
          -1.5534204355978436,
          0.12915185863355763
        ],
        [
          1.673689952227047,
          0.75344337283861484,
          -1.36067762099562,
          -1.8837876429691045,
          -0.7745034017881619,
          -0.52033593185982607,
          -0.27134780901121452,
          -1.08618899263002,
          -0.31900508027877139,
          -1.0071208879778764,
          0.80514638404401984,
          0.62974560704413374,
          -0.35563639822542314,
          -1.8032630062921642,
          1.9648630000722738,
          1.5655284839282606,
          0.0043499073452630726,
          -1.9792183070010088,
          -2.3485910738471909,
          -2.1101710232867257,
          -1.0340272688497147,
          0.6126181263274163,
          -1.0923416961636636,
          1.2788636757902581,
          1.0414006014590975,
          -0.033731223304233858,
          -0.53988859005272527,
          0.0700381527603396,
          1.3409575688256492,
          0.90024426644203892,
          -0.35104004486103263,
          0.20511688375597442,
          -0.80065139110835026,
          -0.6011048745323111,
          -0.8069469340961869
        ],
        [
          -0.79365222554332759,
          -0.92076788834388534,
          0.10380828731906873,
          1.1303148339988025,
          -0.0204737346971252,
          0.72339456538638036,
          0.26069858183032985,
          0.1658969295342522,
          -0.46135449909322035,
          -1.3533781066208332,
          0.58846625503582251,
          -0.89875841772225851,
          -0.60479937306830667,
          -0.20992696891771631,
          0.44432083814511375,
          0.093010305624377038,
          0.53896489068600728,
          0.9921805129752268,
          0.50465993833859391,
          0.052705041608346818,
          -0.39069285367419571,
          -0.32925039072024231,
          -1.0973335885542843,
          -0.85036954919400687,
          0.023530701251219067,
          0.18793457371139402,
          -1.0128975523672374,
          -0.22868892000844884,
          -0.92676630178382413,
          -0.79643546751410055,
          1.3021339690653415,
          1.1571942314755219,
          0.10037626510198305,
          0.28438520759681368,
          1.4026873174785166
        ],
        [
          -0.5324078367495666,
          -0.71276101078381282,
          -1.6131958177219341,
          -0.46241521201490432,
          -0.59248507985969479,
          0.22605230619988639,
          -0.55251030487200969,
          -0.094596725721898992,
          -0.38369320303635435,
          -0.26618117126541374,
          -0.34676278323856508,
          0.1620710901254854,
          -0.2189543472114574,
          -0.96347220448026194,
          0.12901692267654927,
          -1.0921591877292203,
          -0.66194740815679276,
          -0.30250754709371369,
          -1.5510685953074363,
          -1.5972947525512482,
          0.473837131935818,
          0.23125770964604872,
          0.86307307057044591,
          -0.69905961917863857,
          -0.21275191897153131,
          0.43854658182617584,
          0.71550245440083127,
          1.7752188971868792,
          0.29128039572210151,
          -0.05590403191858935,
          -0.72477125917984131,
          0.28639569121094682,
          0.57326540602094334,
          0.84482927918911732,
          1.4654018404089024
        ],
        [
          0.32696024794055395,
          0.220495031415147,
          -1.4544557946021412,
          -0.86235921327478815,
          -1.1168405590181842,
          -0.32681955871962803,
          1.4077486891094,
          -0.66776964811322348,
          0.51818279407838586,
          0.26742206978048955,
          -0.11639418742725192,
          -1.2159214378948819,
          -0.83796227698636327,
          0.84384754264152306,
          1.5004536252610861,
          -0.36258178703531735,
          -0.53720950794266831,
          0.068823068754820818,
          1.1072356872401881,
          1.9786847148316933,
          -0.4491622613750102,
          0.79912583792418856,
          0.43717945211518472,
          1.0515086166662437,
          -0.84064951580046809,
          -1.0804630341622423,
          0.698731001161543,
          -1.2146122386498202,
          0.18830326650629778,
          1.5351773048360822,
          -1.2508219755796814,
          -1.446710365314303,
          -1.6917184012062374,
          -0.478800865628634,
          -0.18569823102888677
        ],
        [
          0.41106486858922109,
          0.44004822699818819,
          -0.73251699699704786,
          -0.14692398238645485,
          -0.57433824897728292,
          0.47402020183796462,
          -0.15071009986523387,
          -0.36434603767662854,
          1.0690236190346138,
          -0.41689438404803653,
          0.68133835318608,
          0.19051170463428715,
          -0.10784755468172762,
          0.83578855434660149,
          -0.40453669748805471,
          0.073255881510436438,
          0.578742876032046,
          -0.3360786223967468,
          -0.92957716911224186,
          0.34131476295417768,
          0.073083968376021019,
          0.51457573570786264,
          -1.0601715177247903,
          0.1629846876222576,
          0.47830767186073458,
          0.35572836266584756,
          -0.7865883894941601,
          -0.99836769736283881,
          1.2638657683952101,
          1.4435838986511547,
          0.36493988088861873,
          -0.75208826495676007,
          -1.2084423250843119,
          1.1026113281705485,
          0.21478020959380562
        ],
        [
          0.090814590683446661,
          -0.54038477611047242,
          0.65018609718108522,
          -0.701112784809789,
          -0.00041322822133219511,
          -0.83863490172287158,
          -0.1250510686583757,
          -0.75432597978248672,
          -0.51779670836741964,
          -0.38387531881023007,
          0.71442529068405325,
          0.40954061489757732,
          -0.697997391388999,
          0.011935499292500661,
          0.56099464467771487,
          -1.2606688265916395,
          0.20108645163594768,
          0.68601423355585511,
          -0.14307095530905406,
          0.61120339296650761,
          1.0938653101239497,
          -0.67236840918252516,
          0.73877358712323427,
          -0.12266036172718349,
          0.7965326766031352,
          0.92081351679954848,
          0.861529498114898,
          0.36440548982646481,
          0.7192625646207198,
          -0.13299414873234361,
          0.99505029997950512,
          1.0726164868632666,
          0.22357582020877581,
          0.34655374404527783,
          0.45997554666694196
        ]
      ]
    },
    {
      "Activation": "Sigmoid",
      "Biases": [
        -0.16181588735660493,
        -0.24486749032290178,
        -0.69345651025380073,
        -1.1705859666237459,
        -1.235935888354375,
        -1.5152202910332648,
        -1.4261526805042284,
        -0.15304013210487513,
        -1.2267790180045821,
        0.31124741818891388
      ],
      "Weights": [
        [
          3.3012748972504986,
          1.359475252233304,
          0.52900642277793675,
          -2.8710933836134291,
          0.37346962122653926,
          0.40293537648848832,
          1.0306566164398907,
          -3.7810368740397178,
          -0.13922001578901971,
          -2.9758063781123432,
          0.46641782841456919,
          -1.5185951391678727,
          0.28650823590901253,
          -1.1983884115406029,
          -4.1649957944017677,
          1.3974028347454286,
          -1.5587449996493523,
          -3.3626035716830116,
          -1.0338500617361186,
          -0.41300904546843409
        ],
        [
          0.497976064586925,
          -1.5907042455547284,
          1.7882276625217213,
          -0.56661493668411234,
          -1.8448440652165445,
          -2.0881009269587425,
          0.43145374886682014,
          -1.2287081132408897,
          -1.1941091939796542,
          -2.1092353102553831,
          1.3907655688757568,
          -3.423106477655383,
          -0.20806569078862333,
          -3.5621182401310469,
          2.9540531697729904,
          -2.5269634146948632,
          0.93967362756806916,
          2.78207756680372,
          0.19195765890460964,
          -1.1334504674451207
        ],
        [
          -3.0751600550158167,
          -2.1915088714429571,
          -1.6394014079077417,
          1.074080807374292,
          -3.0708226304076405,
          -0.84808866182920806,
          0.060280362052707981,
          -2.685689939459829,
          -0.093792728209292714,
          -0.40523029979742137,
          -0.16107904777808624,
          -0.82441351363102822,
          2.5576835672671558,
          3.6898557094893167,
          -1.9177972253131841,
          -0.018837141673978482,
          -0.32280031485196858,
          2.8239846610460515,
          1.7409857384225198,
          -1.7919713720917592
        ],
        [
          0.26417247756240186,
          -0.88535911736602613,
          -1.6198975571434062,
          -0.85120081910277245,
          -1.81020344931867,
          1.701655334818549,
          0.075767163690051431,
          2.3401590182616236,
          -0.54617692000996765,
          2.128703538209463,
          2.2197933718298919,
          -0.97756348752193423,
          -2.1490175665899653,
          0.819152644549399,
          -2.3320421664645519,
          -0.95489447221352619,
          -1.2933227410284793,
          -0.50567967949295067,
          -2.67971407448718,
          -0.8369737660904879
        ],
        [
          1.642515377274895,
          -3.4885576762705139,
          0.48737876359983989,
          0.26352727116285724,
          0.23072262195947366,
          -3.1624275942588791,
          2.0003438593635865,
          1.0727422047270596,
          -1.5368403221132836,
          0.78108390013683437,
          -1.888149635273717,
          0.69846674745010906,
          0.72527468605740431,
          -2.545714257131551,
          -1.889335871294253,
          -0.50738327589691967,
          -0.63999334379902273,
          0.10354463435970451,
          0.33439289779199405,
          -0.20436373455246057
        ],
        [
          -3.2663349442767498,
          0.42496054543683032,
          0.44851459049879444,
          0.51461536643356376,
          -2.8971837541488776,
          1.0202464397012858,
          2.0913044695423122,
          -0.37495389092588105,
          0.260946683047707,
          -2.9298316721396338,
          -2.8039832589479468,
          1.6746503916398285,
          0.24212194493569411,
          -1.0951417144404549,
          1.7330464132970675,
          -0.16370726383253309,
          -0.4563567421827085,
          -2.2846638664368197,
          0.20826467335262117,
          0.10683537580424066
        ],
        [
          -0.0059703445328229757,
          -1.1415379019086274,
          -1.0871559197945628,
          -1.0824551728323153,
          1.1163243779587726,
          1.0717104129361854,
          -2.9578085919268609,
          1.7595789103041497,
          1.6285445285220059,
          -0.46696231329440963,
          0.16611406019187541,
          -2.0908571943135033,
          1.4756853144771123,
          -1.2070366120758229,
          1.5522844733738455,
          0.46543506860045125,
          2.3768552394119653,
          -2.2807856113966776,
          -0.61454653140837134,
          -0.33342327406061356
        ],
        [
          -0.17078974799885016,
          0.1573028964749171,
          -4.0010045054728183,
          0.79248416465000338,
          2.1537316842034686,
          -0.11786196124132775,
          0.45306854631945487,
          -1.8801638487840733,
          -0.81508351552929381,
          0.28410788460883807,
          -2.2004016432119595,
          1.1274318706728261,
          -0.97381345366062966,
          -0.46106327655029222,
          -0.860997728161739,
          -0.6292155128629493,
          2.2665543148834146,
          0.646821550485141,
          -1.1387822883102561,
          -0.94148711149032627
        ],
        [
          2.3414230312593585,
          0.812504971974535,
          -1.1899902070378099,
          -1.5035183483971344,
          -1.8521463170046133,
          -2.075548049735473,
          -2.961856023748302,
          -1.4611666449536371,
          0.27577623135932505,
          -0.29405732049369776,
          -0.48343550978003408,
          1.7943293273103806,
          -1.8508704240940608,
          1.8777607891360188,
          1.8860868737366183,
          -0.6465509665120972,
          0.23589323409146051,
          -1.3879485357977948,
          -0.11545269088701787,
          0.13154206518094821
        ],
        [
          -2.9056349012842539,
          0.64705379905715765,
          1.5384748599786982,
          2.6847851625206851,
          2.5635330318871197,
          -0.491750091388512,
          -2.984299227148187,
          -1.6399595479156563,
          -1.3822786792003843,
          0.18150016187882098,
          0.79900781545581845,
          -0.82445023563568676,
          -2.7602006673789377,
          -2.5549750759108245,
          -3.1428531825853141,
          -1.4714096294654615,
          -1.697474330915083,
          -0.83179604198958879,
          0.73382819028829727,
          -0.29375079810916638
        ]
      ]
    }
  ]
}