{
  "CostFunction": "QuadraticCost",
  "Layers": [
    {
      "Activation": "Sigmoid",
      "Biases": [
        0.52026745092342663,
        -0.22249414133883186,
        -0.0916132034410215,
        0.34026664559565134,
        -1.1687445088236954,
        0.027093995599076909,
        0.011612791787804404,
        1.0712848324007454,
        0.14670185654896789,
        0.13686832860468604,
        0.709713369657631,
        0.638531222041348,
        0.64085695746331228,
        -0.12608584261631112,
        0.35117013794890178
      ],
      "Weights": [
        [
          0.37756667467673694,
          -0.061229812122389808,
          -0.16002163389722768,
          2.4312925279561912,
          -1.3429359990178125,
          -0.83452210095814039,
          -0.49191868150339479,
          2.7678202574307269,
          0.20821393859697249,
          1.8737494508306927,
          -0.96912352517970279,
          0.25411223408040473,
          0.10644202184835296,
          0.64195907463154844,
          0.24183704229769279
        ],
        [
          -0.36500116641732322,
          0.4879124458943499,
          -0.16246334578968569,
          0.03085044470146946,
          -0.411393490412637,
          2.9852739226183851,
          -0.20563224634530886,
          -0.24823684166715698,
          -0.24483875245378464,
          0.37743551459364078,
          -0.37352870140077171,
          1.6546053096211344,
          0.43051261315918465,
          2.0310496142983996,
          -0.1414040471728788
        ],
        [
          0.39593467480116373,
          -1.5115178090502195,
          0.0079788521512539259,
          0.35166629821025158,
          0.40808258986870893,
          -1.370767361453253,
          -0.026033643221848993,
          -2.1374509202806848,
          -0.14431276143701277,
          2.7266602254997809,
          0.2217553361862048,
          -0.0464960817382834,
          -0.74198056737049312,
          -2.2488828837742645,
          0.039442091102151293
        ],
        [
          0.13464032993534214,
          0.62949234433269141,
          0.35625789449707773,
          -3.5200599636390422,
          2.2963940494187156,
          -1.7995826871886773,
          -0.91374085572392671,
          -0.91534868330646446,
          0.56434586572132606,
          -1.088465972506927,
          -0.32126020250902471,
          -0.079843031332807388,
          0.18322650238437888,
          -0.22509514528078764,
          0.32755879156566353
        ],
        [
          -0.20893640445165379,
          -0.041900457456063432,
          -0.24159129521104789,
          0.38082873620773722,
          0.029497417731447512,
          0.10233911590885549,
          0.733708609070166,
          0.65069943861148372,
          -0.53107614957294824,
          3.4285491132337347,
          -0.077315495983819107,
          -1.52663042684673,
          -0.54070859338581811,
          0.20508994800291672,
          -1.076269471841202
        ],
        [
          -0.12298456399492316,
          -0.50822519297913427,
          0.17993568132701693,
          -2.5993282688873607,
          -0.7916625588742584,
          -2.6268192007103242,
          0.69905909497525864,
          2.2356804366115708,
          -0.37911937861868972,
          0.55849218648215082,
          0.49975313396267174,
          -0.92407499459590137,
          0.80814604964052206,
          1.8028839618226871,
          -0.04489899988303598
        ],
        [
          -0.050817100176412479,
          -0.69105875440867537,
          0.49470149288313792,
          -1.1851643858656029,
          -0.85025704228314813,
          2.2540792416599293,
          0.93158414582190707,
          1.5026003463832469,
          0.19012482616886553,
          -0.15306215329897324,
          -0.084667790392660508,
          -0.20619576790519709,
          -0.36997789012251925,
          0.26277239371784139,
          0.24654965650379548
        ],
        [
          0.38957398258394305,
          1.6824443327190981,
          -0.66218726617806722,
          1.1471458741257237,
          0.66990985272432935,
          -2.6734155213438298,
          -0.778709729486144,
          -0.11459497300973778,
          -0.28390673702672053,
          -2.02100811807622,
          0.17546282201673558,
          -0.23887231761070443,
          -0.40779353692427045,
          0.010630126690292603,
          0.69146094959862059
        ],
        [
          0.0920198682489547,
          -1.5245158031448129,
          -0.31207418040950557,
          -0.61017390989714,
          0.89302785613885227,
          1.5637380483268093,
          -2.4170671019490513,
          1.572660177228919,
          0.32712831307514273,
          -0.54396290051728768,
          0.66650540131678182,
          0.67057362255892183,
          -1.8395658405728528,
          -0.14642618848524386,
          0.73820190389187257
        ],
        [
          0.38044088874944004,
          -0.45201708653362693,
          0.16998822524030494,
          1.0564052390567751,
          0.67316053707041079,
          0.79759110154664536,
          0.49462239047574591,
          0.93366174429802273,
          -0.37047130812882151,
          0.82832535780877126,
          -0.36787640391166732,
          0.31318047887434292,
          0.60432720857669386,
          1.0186559344492432,
          0.73396679454106972
        ],
        [
          -0.55670897361282068,
          0.57280734904446429,
          -0.34313696501086116,
          0.31290154704810424,
          -0.40652517287060486,
          -0.32432172329335479,
          0.97943809133724091,
          -1.6967798502676397,
          -0.025061447716896626,
          -2.6162847483323239,
          0.40690581823179012,
          1.5967707398207112,
          0.39519547632176333,
          -0.10692658117817956,
          0.017588990159044898
        ],
        [
          0.518643180630295,
          -2.1398442150786083,
          -0.088874046042593649,
          -1.5971746530957376,
          -0.22978738471060317,
          -1.3524929084956303,
          0.63751072940621811,
          0.56645825033489283,
          -0.25999695095948078,
          -1.8978723288982882,
          1.6114290387760566,
          0.00749938655268471,
          0.25569434408357328,
          0.031107699402835629,
          -0.09596790535186879
        ],
        [
          1.1733640086154753,
          -0.17931440929445403,
          -0.4853364619341507,
          0.78135383523652979,
          -1.1261455272983147,
          -0.23347301531668538,
          0.072721191362300874,
          -0.34477715263844044,
          1.678740434150263,
          -1.6676813775156778,
          -1.1915413770748617,
          1.8681035218593691,
          -0.62231740760733056,
          0.014443757690133969,
          -0.082533926103530525
        ],
        [
          -0.00029505325128057673,
          2.2530908565735621,
          -0.10581413783728341,
          0.35371373524515942,
          -0.69942358184302511,
          2.7195740718128154,
          -0.4120202117803477,
          -0.94993752832276945,
          0.89188729521180321,
          -0.033593401808900886,
          -0.73450245290413052,
          -1.7797857363938336,
          0.4049559520773458,
          0.18206549719528251,
          0.42069205314111369
        ],
        [
          -0.10245458048342679,
          0.18618648474854416,
          1.0079549777937729,
          3.4750349326549896,
          -0.65191782363487694,
          0.10807858094900716,
          0.31462269747256888,
          1.5012733090692072,
          -0.27520572501619267,
          -1.8781596250460864,
          -0.12438862937852174,
          1.1601275225107819,
          -0.21331337877774012,
          0.12687534568087436,
          -0.096010835890347729
        ]
      ]
    },
    {
      "Activation": "Sigmoid",
      "Biases": [
        -2.2510727321577306,
        -1.8286336751771086,
        -0.66235764869533365,
        -0.92414987020891437,
        -0.96106853669053893,
        0.13263974752771729,
        -0.88011718003854533,
        -1.4692028430083142,
        0.16030305260546809,
        -0.088339675911060969
      ],
      "Weights": [
        [
          1.2365684170867246,
          -1.5300181772741384,
          -3.4743286239522337,
          0.50354685518075593,
          -1.0166639642074971,
          2.2189663314615644,
          -0.12480295727844891,
          0.59709958729365231,
          3.0427294513174719,
          -1.0549398773677978,
          -1.4387537370938306,
          0.65578739193904489,
          -0.33209534976068744,
          -1.8589653518594365,
          0.33113329358965282
        ],
        [
          0.97640321475828407,
          0.66454798438840978,
          0.3598243879573329,
          -1.1713128272118183,
          -0.7416197164086441,
          -2.2154313207480554,
          0.042780571206113727,
          -2.4773033730558693,
          -2.1258814370042685,
          -0.77988210152812987,
          0.049978172688049979,
          -1.7623390113354909,
          2.5214836317269516,
          1.7528064720788104,
          0.42189661429975961
        ],
        [
          -0.76243937546065077,
          -0.17257325308301058,
          -1.1377207415014659,
          -1.4794539020311825,
          -1.9874460880474429,
          -2.2312139532992585,
          -2.5504231676585478,
          0.0012096433338424785,
          0.83045747952094651,
          -0.17209724239146454,
          2.1954184130179608,
          0.030154572338055498,
          1.2351642268263472,
          -2.7675445256908864,
          2.5736418717900231
        ],
        [
          1.6938328533052354,
          -2.3464513580081494,
          2.3907712307447033,
          -2.2127167238118921,
          1.2465349399544183,
          -2.2171281952679971,
          -2.3361746287461815,
          1.0416161844679401,
          -0.13610132701883088,
          -0.084089214245902877,
          -1.6336394211299583,
          -1.7588154195772545,
          -1.8709894001385672,
          0.023705513130156144,
          0.81816840349557118
        ],
        [
          -0.20493998709370875,
          0.56492471370362007,
          -2.399702336522108,
          1.6823105863995216,
          -0.12403332034871023,
          1.1407948042600704,
          -1.7801858614568944,
          2.6169529378629344,
          -2.3109627572524873,
          -0.49738375405232077,
          -0.43308643104470052,
          -2.0607807254924966,
          -1.2878163976669939,
          1.2656363852128316,
          -1.8483992288810669
        ],
        [
          -1.5003758883411775,
          1.4653032557731214,
          1.0458655120249014,
          -0.84902611215682966,
          1.4721084907229349,
          -2.1030890085354343,
          0.52267033210250524,
          -2.4455007630509273,
          0.71100272513188112,
          -0.069612576438738583,
          -2.2213827109350617,
          -2.4034331880994535,
          -1.1508774415711742,
          1.0094906472462721,
          -3.3469634685745984
        ],
        [
          -2.927021103696803,
          0.83770725284495451,
          -2.9724560040498575,
          1.4930315890635748,
          -1.7915617970994158,
          -2.203330966032027,
          0.93815202393669306,
          -1.4590834718786003,
          1.3724296673086054,
          -1.3714014348583921,
          0.27067830155725481,
          0.70596069525750327,
          0.012303049154173278,
          1.6925911483116867,
          0.15559746702818975
        ],
        [
          1.335335669829874,
          0.44789042698338377,
          -2.3429397936784948,
          -3.219598960351036,
          1.713805326070176,
          2.5277346583152411,
          -0.044860075740186821,
          -1.1644473212270934,
          -1.910232428799389,
          -1.003269803032383,
          -0.9543798785573302,
          0.040429310485018334,
          -1.4837005447962173,
          -1.2210434096166916,
          1.1268890824609799
        ],
        [
          -3.4442610425414983,
          -2.7986837171172412,
          0.42081911358842711,
          2.9204128223314685,
          -2.4583331334966054,
          0.35650211783274915,
          -1.2984885742003181,
          0.68478752754682493,
          -0.91383835121518386,
          -1.5870383946567712,
          1.5495586281765914,
          1.4731825830485388,
          0.72490753760026228,
          -0.97271713523911041,
          -1.1813773676390227
        ],
        [
          -0.44580852443422642,
          -1.1470558906223745,
          2.174661083631551,
          1.3035337589795617,
          1.9806755093662265,
          1.7693208679493329,
          -1.2870027610379407,
          -1.9009340097348961,
          -0.6354702992229132,
          -1.5643665489499474,
          -1.1335304356426461,
          1.1175239226539209,
          -0.88967230075922255,
          -2.7972529895659246,
          -3.1733015913222284
        ]
      ]
    }
  ]
}